%YAML:1.0
---
opencv_ml_svm:
   format: 3
   svmType: C_SVC
   kernel:
      type: RBF
      gamma: 1.5000000000000001e-04
   C: 1.0000000000000001e-01
   term_criteria: { iterations:40 }
   var_count: 50
   class_count: 2
   class_labels: !!opencv-matrix
      rows: 2
      cols: 1
      dt: i
      data: [ 0, 1 ]
   sv_total: 80
   support_vectors:
      - [ 5., 30., 17., 13., 6., 11., 14., 41., 17., 10., 14., 13., 15.,
          7., 2., 4., 12., 24., 11., 34., 13., 8., 14., 14., 9., 1., 4.,
          14., 12., 12., 5., 7., 10., 16., 11., 23., 16., 7., 26., 13.,
          10., 8., 10., 14., 7., 8., 47., 4., 15., 5. ]
      - [ 0., 1., 3., 1., 1., 1., 1., 16., 5., 1., 3., 0., 4., 0., 0.,
          1., 0., 2., 0., 0., 2., 0., 3., 1., 1., 0., 0., 0., 2., 0., 0.,
          0., 0., 0., 0., 0., 7., 2., 3., 1., 0., 3., 1., 1., 1., 0.,
          22., 0., 0., 0. ]
      - [ 0., 2., 3., 0., 5., 1., 2., 11., 2., 0., 5., 1., 6., 1., 3.,
          0., 2., 3., 0., 1., 4., 6., 1., 6., 0., 2., 1., 3., 1., 1., 0.,
          1., 4., 1., 0., 5., 5., 0., 2., 0., 3., 0., 2., 0., 2., 7., 9.,
          0., 3., 0. ]
      - [ 11., 26., 7., 13., 10., 20., 16., 10., 15., 9., 13., 18., 13.,
          16., 6., 12., 24., 21., 19., 10., 6., 5., 7., 12., 11., 14.,
          6., 8., 18., 15., 10., 8., 16., 7., 9., 7., 18., 14., 28., 10.,
          6., 12., 11., 15., 9., 12., 13., 5., 10., 9. ]
      - [ 4., 6., 22., 7., 9., 3., 5., 8., 18., 3., 7., 7., 13., 1., 2.,
          8., 4., 8., 2., 6., 8., 3., 3., 11., 5., 4., 6., 10., 2., 2.,
          4., 3., 5., 5., 1., 2., 14., 5., 15., 5., 3., 3., 7., 4., 7.,
          5., 16., 1., 6., 10. ]
      - [ 3., 5., 4., 1., 6., 5., 4., 10., 2., 1., 1., 3., 0., 3., 2.,
          1., 4., 4., 2., 3., 2., 4., 4., 1., 1., 5., 2., 4., 4., 2., 4.,
          5., 4., 1., 1., 3., 1., 0., 1., 19., 5., 0., 3., 28., 4., 10.,
          9., 1., 2., 2. ]
      - [ 0., 7., 3., 3., 4., 6., 12., 9., 2., 2., 1., 4., 6., 3., 6.,
          6., 0., 3., 0., 1., 5., 1., 1., 4., 0., 4., 1., 0., 6., 3., 0.,
          4., 6., 9., 0., 2., 5., 8., 1., 7., 2., 1., 8., 10., 2., 3.,
          7., 3., 1., 4. ]
      - [ 5., 17., 8., 10., 4., 6., 15., 7., 7., 10., 9., 12., 15., 13.,
          8., 10., 7., 22., 15., 13., 15., 5., 13., 13., 7., 7., 20., 8.,
          19., 8., 10., 17., 17., 11., 13., 7., 15., 9., 14., 9., 4., 5.,
          5., 15., 19., 6., 16., 10., 6., 4. ]
      - [ 9., 2., 13., 17., 3., 20., 15., 8., 5., 5., 8., 5., 8., 1., 1.,
          12., 16., 2., 1., 0., 7., 8., 4., 11., 8., 6., 1., 8., 1., 1.,
          3., 6., 19., 7., 3., 14., 7., 4., 2., 24., 2., 2., 11., 24.,
          2., 1., 5., 4., 4., 15. ]
      - [ 0., 10., 11., 3., 9., 0., 2., 10., 6., 1., 8., 2., 11., 2., 1.,
          0., 4., 4., 3., 3., 6., 3., 3., 5., 0., 1., 1., 2., 2., 1., 1.,
          1., 7., 7., 0., 0., 7., 1., 4., 11., 2., 2., 5., 15., 4., 1.,
          8., 1., 4., 3. ]
      - [ 4., 4., 9., 0., 3., 0., 5., 3., 10., 5., 5., 7., 1., 3., 3.,
          1., 7., 11., 2., 5., 2., 2., 7., 1., 5., 1., 2., 5., 4., 1.,
          3., 1., 4., 3., 2., 2., 4., 4., 7., 3., 4., 4., 2., 4., 2., 3.,
          6., 3., 2., 2. ]
      - [ 2., 0., 0., 11., 2., 12., 5., 3., 3., 3., 4., 1., 6., 0., 3.,
          11., 1., 3., 1., 0., 2., 0., 1., 7., 3., 4., 5., 2., 2., 5.,
          4., 3., 4., 5., 1., 0., 4., 2., 0., 13., 8., 0., 9., 18., 2.,
          2., 0., 8., 0., 6. ]
      - [ 10., 10., 6., 5., 6., 12., 3., 14., 2., 4., 16., 8., 5., 8.,
          6., 14., 2., 6., 8., 9., 5., 2., 5., 10., 12., 11., 8., 2., 3.,
          6., 6., 5., 4., 6., 7., 10., 6., 4., 5., 16., 7., 6., 7., 16.,
          4., 6., 12., 7., 13., 11. ]
      - [ 14., 10., 9., 8., 15., 27., 25., 14., 6., 14., 9., 7., 9., 20.,
          5., 11., 13., 8., 9., 4., 12., 5., 11., 10., 3., 14., 9., 6.,
          7., 10., 20., 7., 23., 13., 17., 7., 10., 15., 8., 28., 17.,
          9., 11., 24., 12., 21., 31., 13., 9., 18. ]
      - [ 1., 8., 17., 7., 10., 13., 9., 9., 9., 11., 10., 7., 8., 15.,
          16., 10., 12., 10., 8., 9., 8., 7., 10., 15., 7., 4., 8., 7.,
          8., 6., 12., 5., 10., 14., 8., 6., 14., 10., 10., 7., 5., 9.,
          9., 7., 10., 6., 13., 9., 8., 6. ]
      - [ 15., 15., 9., 11., 10., 15., 12., 13., 3., 9., 13., 15., 14.,
          12., 10., 12., 10., 9., 14., 4., 10., 6., 7., 10., 14., 7.,
          12., 4., 3., 13., 7., 8., 11., 10., 10., 4., 13., 10., 9., 7.,
          4., 16., 5., 18., 6., 6., 9., 8., 14., 10. ]
      - [ 11., 6., 5., 5., 9., 5., 11., 11., 6., 10., 4., 9., 18., 8.,
          15., 9., 7., 4., 13., 8., 8., 8., 15., 13., 7., 11., 8., 7.,
          10., 5., 7., 12., 9., 12., 14., 3., 14., 10., 7., 13., 10.,
          18., 7., 20., 9., 7., 11., 7., 9., 9. ]
      - [ 8., 4., 13., 4., 9., 7., 6., 9., 11., 3., 9., 4., 17., 9., 6.,
          3., 21., 8., 9., 0., 15., 10., 7., 10., 9., 7., 3., 14., 7.,
          4., 5., 8., 9., 9., 14., 8., 12., 5., 6., 5., 20., 11., 3., 7.,
          8., 6., 10., 10., 4., 2. ]
      - [ 9., 5., 3., 8., 6., 15., 14., 9., 7., 4., 5., 7., 14., 8., 5.,
          7., 10., 4., 6., 1., 4., 4., 2., 9., 4., 5., 6., 4., 12., 6.,
          3., 3., 11., 14., 9., 2., 13., 5., 6., 7., 10., 24., 15., 6.,
          6., 3., 9., 2., 8., 17. ]
      - [ 16., 1., 10., 8., 7., 11., 15., 11., 13., 5., 8., 1., 6., 3.,
          4., 14., 12., 4., 4., 5., 9., 14., 6., 12., 17., 14., 8., 4.,
          7., 12., 6., 23., 17., 12., 8., 6., 13., 11., 2., 18., 7., 17.,
          11., 15., 11., 14., 20., 12., 9., 12. ]
      - [ 6., 1., 2., 2., 4., 0., 4., 6., 2., 4., 3., 4., 6., 3., 7., 4.,
          7., 2., 2., 3., 7., 5., 2., 1., 7., 2., 3., 4., 2., 4., 1., 1.,
          3., 2., 4., 5., 3., 0., 4., 3., 9., 10., 5., 1., 3., 2., 3.,
          0., 5., 5. ]
      - [ 6., 8., 9., 10., 12., 9., 6., 6., 8., 9., 6., 7., 7., 4., 11.,
          8., 17., 5., 8., 2., 9., 12., 4., 7., 9., 8., 3., 10., 5., 6.,
          9., 7., 6., 8., 11., 4., 8., 9., 5., 2., 8., 8., 10., 8., 8.,
          5., 22., 7., 11., 7. ]
      - [ 23., 10., 8., 7., 8., 9., 13., 11., 5., 10., 8., 4., 13., 5.,
          9., 6., 14., 5., 8., 7., 11., 7., 11., 2., 6., 7., 7., 2., 10.,
          2., 9., 9., 9., 7., 9., 6., 13., 6., 15., 18., 6., 19., 2.,
          13., 8., 6., 9., 8., 6., 4. ]
      - [ 9., 5., 8., 16., 13., 11., 14., 10., 5., 11., 6., 5., 11., 15.,
          14., 12., 19., 4., 8., 4., 9., 14., 8., 7., 14., 10., 14., 5.,
          4., 13., 11., 11., 16., 9., 17., 6., 7., 10., 7., 6., 11., 4.,
          7., 23., 10., 10., 7., 14., 18., 10. ]
      - [ 9., 10., 9., 8., 14., 18., 9., 13., 11., 11., 12., 9., 18., 4.,
          11., 10., 11., 6., 8., 7., 16., 7., 7., 17., 4., 7., 3., 4.,
          7., 5., 5., 13., 10., 17., 10., 0., 9., 7., 8., 14., 4., 11.,
          7., 43., 17., 2., 20., 7., 7., 14. ]
      - [ 8., 5., 6., 7., 5., 11., 12., 16., 20., 7., 7., 8., 13., 3.,
          5., 10., 22., 6., 2., 2., 5., 5., 8., 8., 13., 8., 5., 2., 7.,
          6., 12., 13., 7., 9., 8., 0., 12., 4., 7., 10., 8., 9., 15.,
          21., 7., 9., 11., 5., 3., 6. ]
      - [ 4., 9., 19., 6., 4., 6., 9., 6., 6., 1., 12., 7., 14., 10., 5.,
          4., 23., 1., 3., 13., 5., 8., 4., 13., 4., 5., 8., 4., 8., 4.,
          3., 11., 7., 8., 6., 6., 7., 10., 5., 5., 15., 7., 8., 6., 8.,
          4., 10., 5., 5., 10. ]
      - [ 13., 16., 11., 9., 20., 19., 24., 20., 13., 16., 13., 13., 13.,
          17., 12., 25., 12., 13., 12., 18., 7., 6., 23., 17., 11., 12.,
          12., 12., 13., 25., 12., 16., 11., 37., 19., 18., 15., 15., 7.,
          17., 17., 20., 13., 10., 20., 21., 13., 16., 14., 13. ]
      - [ 8., 12., 9., 14., 15., 49., 24., 4., 14., 14., 7., 17., 26.,
          27., 9., 23., 11., 6., 28., 2., 23., 2., 9., 20., 6., 17., 16.,
          4., 14., 13., 14., 14., 26., 21., 25., 10., 12., 15., 10., 10.,
          9., 9., 19., 10., 18., 7., 6., 10., 29., 34. ]
      - [ 3., 4., 6., 3., 2., 7., 3., 11., 11., 3., 6., 3., 9., 8., 4.,
          4., 6., 4., 8., 4., 4., 5., 3., 2., 5., 2., 0., 2., 3., 4., 0.,
          1., 5., 5., 3., 8., 7., 6., 7., 1., 1., 10., 10., 3., 3., 3.,
          11., 2., 4., 8. ]
      - [ 22., 20., 11., 12., 11., 13., 9., 13., 8., 4., 14., 26., 13.,
          15., 24., 11., 7., 15., 19., 19., 16., 16., 13., 9., 12., 11.,
          12., 17., 30., 17., 19., 12., 7., 13., 20., 19., 12., 17., 26.,
          10., 19., 25., 6., 7., 20., 10., 14., 5., 16., 6. ]
      - [ 7., 9., 7., 7., 14., 2., 9., 17., 7., 2., 14., 3., 9., 2., 3.,
          3., 12., 9., 7., 10., 10., 14., 4., 4., 12., 7., 3., 7., 4.,
          8., 3., 2., 5., 7., 3., 16., 12., 9., 17., 6., 5., 9., 4., 5.,
          10., 4., 9., 3., 8., 12. ]
      - [ 5., 6., 7., 0., 4., 2., 3., 8., 8., 3., 8., 4., 8., 1., 6., 3.,
          8., 3., 2., 5., 7., 2., 5., 2., 11., 2., 6., 5., 2., 5., 1.,
          6., 4., 3., 3., 5., 9., 4., 12., 2., 3., 5., 6., 6., 12., 15.,
          9., 4., 6., 7. ]
      - [ 3., 2., 0., 2., 1., 1., 2., 23., 5., 0., 3., 0., 3., 2., 6.,
          5., 0., 5., 4., 11., 3., 34., 0., 3., 1., 1., 2., 15., 4., 0.,
          1., 1., 4., 3., 2., 4., 3., 0., 2., 6., 4., 3., 2., 13., 2.,
          7., 27., 0., 2., 1. ]
      - [ 9., 7., 15., 7., 9., 10., 12., 26., 7., 12., 9., 9., 12., 9.,
          10., 5., 11., 7., 5., 17., 10., 10., 7., 10., 17., 6., 11.,
          15., 11., 7., 2., 10., 14., 6., 4., 7., 11., 2., 21., 6., 8.,
          16., 9., 17., 16., 3., 22., 5., 12., 11. ]
      - [ 13., 5., 9., 5., 10., 6., 4., 22., 11., 15., 22., 5., 13., 5.,
          2., 7., 9., 4., 5., 4., 11., 1., 8., 10., 13., 9., 1., 8., 3.,
          6., 4., 6., 7., 4., 7., 9., 11., 9., 17., 3., 5., 8., 8., 11.,
          10., 5., 14., 4., 22., 7. ]
      - [ 5., 5., 10., 4., 7., 13., 9., 30., 21., 8., 11., 12., 12., 5.,
          4., 7., 11., 3., 4., 7., 8., 10., 2., 8., 10., 6., 5., 14., 5.,
          9., 2., 5., 10., 7., 4., 9., 11., 5., 5., 5., 4., 7., 7., 5.,
          7., 5., 20., 4., 14., 6. ]
      - [ 8., 5., 8., 3., 3., 12., 3., 23., 8., 4., 9., 3., 9., 3., 3.,
          3., 16., 4., 3., 7., 4., 4., 5., 8., 7., 3., 0., 1., 2., 2.,
          0., 2., 4., 3., 9., 10., 14., 2., 9., 6., 4., 6., 10., 11., 4.,
          2., 32., 1., 6., 9. ]
      - [ 1., 4., 1., 1., 5., 1., 0., 19., 8., 1., 5., 3., 2., 3., 6.,
          4., 3., 1., 1., 19., 3., 2., 1., 3., 2., 3., 0., 6., 5., 1.,
          1., 1., 3., 3., 1., 15., 2., 1., 5., 6., 3., 4., 0., 9., 4.,
          2., 14., 1., 1., 2. ]
      - [ 8., 1., 5., 2., 11., 13., 6., 16., 11., 3., 6., 5., 5., 4., 2.,
          6., 14., 6., 7., 13., 9., 11., 7., 9., 0., 4., 7., 10., 5., 6.,
          8., 14., 8., 7., 10., 17., 5., 2., 15., 3., 5., 10., 5., 3.,
          6., 6., 32., 2., 5., 7. ]
      - [ 5., 6., 8., 4., 10., 8., 6., 11., 6., 6., 5., 3., 1., 6., 5.,
          6., 6., 6., 7., 13., 4., 0., 6., 4., 7., 7., 1., 6., 5., 3.,
          7., 2., 6., 2., 7., 7., 6., 3., 3., 4., 9., 10., 10., 4., 3.,
          7., 10., 3., 6., 8. ]
      - [ 9., 8., 14., 5., 6., 7., 11., 15., 12., 7., 8., 5., 13., 13.,
          10., 3., 16., 4., 5., 8., 8., 11., 10., 10., 3., 4., 4., 9.,
          6., 5., 5., 9., 7., 5., 7., 12., 12., 5., 12., 8., 16., 11.,
          4., 15., 7., 5., 4., 2., 12., 6. ]
      - [ 6., 13., 4., 6., 8., 12., 19., 6., 5., 9., 4., 5., 9., 7., 8.,
          8., 6., 8., 4., 1., 1., 6., 6., 8., 2., 3., 3., 2., 5., 9., 3.,
          3., 13., 9., 9., 6., 4., 7., 7., 12., 7., 4., 10., 7., 6., 5.,
          4., 4., 9., 6. ]
      - [ 16., 4., 16., 10., 15., 10., 8., 8., 9., 9., 9., 14., 19., 16.,
          6., 2., 10., 8., 7., 8., 9., 8., 14., 14., 19., 10., 9., 5.,
          9., 7., 6., 5., 12., 22., 18., 7., 21., 7., 2., 3., 7., 16.,
          10., 15., 17., 7., 9., 5., 16., 15. ]
      - [ 5., 6., 6., 4., 6., 3., 4., 18., 9., 3., 2., 2., 11., 4., 5.,
          11., 8., 4., 0., 1., 8., 10., 2., 3., 2., 6., 8., 5., 6., 3.,
          5., 7., 5., 6., 4., 0., 7., 4., 7., 15., 5., 5., 7., 25., 4.,
          9., 24., 8., 4., 11. ]
      - [ 8., 1., 6., 8., 6., 28., 15., 21., 5., 3., 3., 4., 8., 2., 4.,
          11., 6., 8., 4., 1., 6., 3., 2., 10., 2., 13., 2., 2., 3., 5.,
          6., 9., 11., 11., 5., 2., 7., 7., 5., 14., 1., 2., 11., 15.,
          5., 1., 19., 8., 7., 22. ]
      - [ 4., 4., 10., 5., 4., 10., 8., 8., 4., 6., 5., 4., 10., 2., 5.,
          10., 9., 2., 2., 1., 5., 5., 2., 1., 2., 6., 1., 1., 2., 6.,
          3., 2., 6., 8., 2., 2., 10., 2., 4., 8., 2., 4., 12., 3., 5.,
          1., 9., 3., 4., 12. ]
      - [ 6., 6., 4., 6., 4., 8., 10., 8., 7., 6., 4., 4., 9., 1., 5.,
          4., 12., 3., 1., 2., 5., 5., 0., 2., 2., 5., 2., 4., 3., 3.,
          5., 6., 12., 5., 3., 5., 6., 4., 1., 17., 5., 2., 9., 28., 1.,
          4., 4., 2., 3., 5. ]
      - [ 15., 11., 16., 10., 20., 20., 14., 12., 11., 3., 15., 11., 16.,
          10., 4., 13., 11., 7., 15., 7., 16., 7., 5., 23., 11., 15.,
          12., 6., 9., 18., 8., 9., 18., 15., 18., 2., 11., 14., 9., 17.,
          5., 6., 7., 14., 17., 13., 12., 11., 18., 13. ]
      - [ 14., 24., 13., 11., 17., 14., 14., 9., 9., 7., 14., 13., 19.,
          11., 6., 11., 13., 19., 16., 9., 19., 7., 13., 17., 9., 8.,
          15., 6., 13., 18., 11., 14., 17., 16., 17., 8., 13., 14., 19.,
          15., 2., 12., 9., 22., 21., 13., 12., 10., 17., 3. ]
      - [ 4., 5., 4., 4., 7., 4., 5., 32., 10., 6., 10., 5., 12., 1., 3.,
          3., 13., 5., 1., 5., 4., 6., 2., 7., 8., 0., 0., 6., 4., 6.,
          1., 5., 11., 7., 7., 1., 9., 4., 8., 6., 4., 5., 5., 10., 2.,
          6., 18., 2., 8., 5. ]
      - [ 11., 8., 7., 6., 11., 11., 12., 20., 17., 4., 13., 4., 11., 4.,
          8., 9., 11., 6., 6., 12., 9., 10., 9., 3., 11., 6., 7., 6., 7.,
          9., 3., 5., 6., 6., 9., 11., 13., 9., 22., 22., 6., 14., 10.,
          12., 7., 5., 16., 6., 12., 7. ]
      - [ 6., 16., 7., 14., 14., 13., 20., 11., 4., 9., 3., 14., 17.,
          10., 17., 12., 15., 8., 5., 17., 9., 17., 10., 20., 5., 13.,
          10., 11., 12., 7., 8., 10., 21., 14., 9., 11., 7., 3., 9., 10.,
          11., 11., 6., 20., 13., 13., 12., 8., 7., 8. ]
      - [ 4., 4., 8., 4., 6., 13., 4., 23., 6., 4., 12., 4., 9., 4., 4.,
          4., 4., 2., 4., 8., 6., 6., 9., 3., 9., 9., 8., 10., 2., 6.,
          8., 4., 6., 9., 4., 12., 10., 3., 5., 8., 3., 3., 3., 3., 6.,
          9., 26., 3., 7., 10. ]
      - [ 3., 7., 4., 3., 5., 2., 2., 16., 4., 3., 9., 5., 9., 8., 5.,
          4., 8., 5., 3., 9., 5., 10., 6., 4., 4., 4., 5., 5., 8., 1.,
          2., 4., 1., 7., 2., 10., 6., 3., 8., 5., 0., 6., 5., 5., 1.,
          9., 16., 2., 6., 1. ]
      - [ 3., 1., 4., 1., 3., 2., 1., 11., 6., 0., 2., 2., 9., 1., 4.,
          1., 3., 5., 2., 3., 7., 3., 1., 3., 2., 1., 2., 4., 0., 2., 1.,
          6., 0., 4., 0., 11., 4., 3., 3., 4., 3., 5., 3., 12., 2., 2.,
          12., 1., 1., 3. ]
      - [ 3., 1., 5., 2., 2., 1., 2., 17., 10., 4., 7., 2., 5., 0., 2.,
          2., 9., 2., 1., 4., 4., 8., 1., 1., 5., 3., 1., 1., 0., 1., 1.,
          2., 1., 1., 1., 2., 5., 3., 7., 9., 1., 6., 6., 0., 1., 2.,
          27., 1., 2., 2. ]
      - [ 0., 5., 6., 1., 0., 2., 1., 9., 5., 2., 6., 5., 8., 1., 1., 2.,
          3., 6., 4., 1., 2., 3., 2., 0., 5., 1., 2., 0., 0., 2., 2., 3.,
          1., 3., 1., 3., 6., 1., 7., 3., 2., 0., 5., 3., 1., 0., 4., 2.,
          0., 0. ]
      - [ 3., 0., 11., 3., 2., 3., 0., 4., 6., 2., 10., 1., 4., 2., 2.,
          2., 10., 3., 2., 4., 1., 5., 1., 3., 4., 0., 0., 7., 2., 3.,
          0., 0., 2., 4., 1., 5., 10., 2., 8., 3., 3., 4., 8., 6., 0.,
          7., 18., 0., 1., 2. ]
      - [ 6., 1., 5., 2., 1., 6., 2., 20., 5., 2., 9., 1., 1., 2., 5.,
          1., 9., 2., 1., 9., 1., 10., 4., 5., 1., 1., 2., 10., 5., 0.,
          1., 0., 2., 3., 2., 6., 7., 1., 5., 2., 2., 3., 2., 5., 3., 3.,
          14., 1., 2., 3. ]
      - [ 6., 2., 5., 1., 4., 11., 10., 10., 8., 7., 2., 1., 11., 0., 9.,
          7., 8., 4., 0., 4., 3., 5., 2., 5., 2., 5., 3., 3., 0., 2., 2.,
          2., 6., 5., 1., 0., 3., 0., 2., 23., 1., 7., 3., 38., 1., 2.,
          7., 1., 3., 5. ]
      - [ 12., 10., 13., 10., 20., 11., 25., 9., 8., 18., 7., 27., 17.,
          19., 4., 15., 18., 9., 23., 8., 15., 9., 8., 16., 9., 14., 20.,
          3., 25., 7., 4., 14., 23., 13., 10., 6., 16., 11., 9., 9., 8.,
          18., 8., 12., 21., 9., 10., 3., 16., 9. ]
      - [ 10., 12., 15., 15., 25., 28., 11., 9., 18., 11., 10., 10., 23.,
          15., 3., 19., 9., 4., 6., 4., 16., 4., 8., 25., 3., 23., 13.,
          6., 7., 11., 11., 19., 8., 23., 15., 6., 16., 21., 13., 3., 6.,
          16., 24., 9., 17., 4., 11., 4., 25., 21. ]
      - [ 7., 9., 12., 9., 9., 23., 7., 14., 11., 5., 13., 12., 15., 7.,
          5., 10., 11., 10., 18., 10., 12., 4., 9., 9., 9., 11., 13.,
          10., 16., 9., 12., 12., 9., 9., 13., 6., 12., 8., 16., 9., 12.,
          8., 12., 15., 16., 10., 25., 8., 9., 11. ]
      - [ 3., 2., 5., 2., 2., 16., 4., 12., 4., 1., 1., 3., 6., 1., 2.,
          2., 2., 2., 0., 7., 1., 3., 0., 0., 3., 3., 2., 6., 1., 1., 0.,
          2., 0., 3., 2., 4., 3., 1., 4., 2., 4., 2., 2., 6., 2., 1., 8.,
          1., 1., 3. ]
      - [ 6., 1., 10., 11., 5., 7., 17., 11., 8., 9., 9., 3., 7., 6., 8.,
          9., 8., 3., 1., 3., 7., 6., 5., 12., 15., 9., 2., 6., 6., 7.,
          6., 5., 15., 6., 3., 1., 11., 5., 11., 11., 8., 12., 8., 22.,
          10., 3., 7., 10., 10., 10. ]
      - [ 6., 2., 1., 4., 5., 12., 11., 17., 1., 3., 3., 1., 4., 1., 1.,
          2., 7., 2., 0., 3., 7., 7., 1., 3., 7., 1., 5., 3., 8., 8., 1.,
          4., 7., 1., 1., 2., 4., 4., 0., 21., 2., 7., 3., 20., 3., 2.,
          9., 3., 2., 10. ]
      - [ 5., 5., 8., 4., 3., 8., 7., 6., 3., 3., 8., 6., 7., 6., 5., 7.,
          18., 6., 2., 3., 8., 6., 1., 8., 12., 1., 2., 2., 5., 6., 3.,
          4., 5., 13., 5., 3., 4., 4., 9., 5., 10., 5., 9., 16., 4., 9.,
          8., 2., 8., 4. ]
      - [ 2., 3., 2., 6., 3., 2., 5., 11., 5., 6., 6., 2., 7., 3., 3.,
          5., 12., 7., 1., 2., 5., 5., 4., 4., 9., 4., 0., 5., 1., 4.,
          5., 3., 9., 8., 4., 1., 5., 3., 3., 11., 3., 5., 8., 18., 5.,
          7., 15., 8., 6., 6. ]
      - [ 6., 5., 10., 3., 11., 14., 9., 10., 16., 6., 14., 1., 17., 6.,
          3., 8., 11., 8., 2., 12., 8., 15., 4., 15., 11., 9., 5., 11.,
          5., 7., 4., 7., 9., 9., 1., 7., 8., 6., 12., 0., 10., 9., 11.,
          6., 9., 7., 34., 4., 10., 16. ]
      - [ 6., 3., 7., 2., 6., 6., 3., 9., 10., 5., 8., 6., 11., 3., 3.,
          4., 12., 6., 1., 6., 6., 4., 4., 11., 12., 2., 3., 4., 4., 5.,
          4., 4., 6., 8., 1., 16., 11., 4., 9., 4., 3., 5., 12., 15., 8.,
          5., 11., 3., 10., 4. ]
      - [ 8., 15., 16., 8., 11., 5., 8., 20., 19., 15., 9., 11., 20., 7.,
          14., 7., 12., 18., 7., 19., 17., 9., 7., 10., 11., 7., 7., 9.,
          10., 7., 6., 8., 8., 11., 12., 11., 8., 11., 12., 5., 7., 19.,
          12., 13., 12., 13., 25., 8., 11., 7. ]
      - [ 11., 6., 13., 13., 10., 20., 15., 8., 8., 9., 6., 13., 5., 10.,
          9., 12., 24., 9., 9., 11., 21., 7., 9., 8., 10., 9., 12., 5.,
          9., 10., 9., 17., 14., 11., 15., 7., 11., 4., 14., 6., 6., 12.,
          9., 6., 14., 9., 14., 5., 10., 7. ]
      - [ 3., 4., 4., 3., 6., 7., 3., 7., 5., 4., 7., 6., 5., 2., 7., 4.,
          5., 5., 4., 4., 7., 4., 3., 4., 5., 6., 1., 5., 8., 3., 0., 6.,
          5., 5., 1., 2., 8., 4., 5., 1., 8., 8., 5., 13., 0., 11., 12.,
          2., 5., 4. ]
      - [ 4., 7., 4., 2., 8., 8., 12., 31., 6., 2., 6., 1., 12., 5., 4.,
          3., 9., 9., 5., 11., 2., 3., 7., 7., 8., 5., 8., 4., 4., 5.,
          4., 7., 7., 5., 4., 10., 11., 7., 7., 4., 6., 3., 3., 5., 11.,
          6., 32., 4., 9., 2. ]
      - [ 12., 13., 17., 11., 12., 13., 11., 14., 11., 10., 17., 12.,
          19., 12., 7., 9., 6., 6., 19., 19., 15., 12., 13., 7., 11.,
          12., 12., 9., 10., 8., 6., 7., 9., 12., 14., 7., 17., 8., 20.,
          11., 17., 18., 15., 11., 14., 6., 28., 17., 8., 11. ]
      - [ 16., 16., 15., 4., 14., 10., 6., 12., 9., 17., 9., 19., 17.,
          17., 14., 9., 19., 12., 6., 20., 17., 5., 11., 6., 13., 6.,
          10., 9., 18., 10., 8., 9., 8., 9., 13., 26., 14., 16., 13., 4.,
          19., 26., 8., 13., 18., 9., 13., 10., 13., 14. ]
      - [ 7., 11., 14., 8., 14., 10., 9., 6., 9., 8., 10., 7., 19., 7.,
          13., 5., 14., 8., 3., 2., 13., 14., 10., 5., 5., 5., 8., 18.,
          8., 12., 9., 5., 9., 8., 5., 17., 11., 3., 15., 1., 19., 8.,
          10., 9., 11., 8., 8., 3., 11., 8. ]
      - [ 25., 20., 13., 5., 19., 16., 15., 6., 14., 7., 11., 10., 18.,
          17., 10., 11., 9., 8., 23., 6., 22., 4., 9., 11., 7., 14., 11.,
          5., 22., 13., 7., 16., 13., 12., 18., 3., 14., 9., 19., 4., 4.,
          27., 13., 15., 28., 10., 5., 15., 11., 10. ]
      - [ 9., 18., 15., 7., 13., 19., 16., 10., 9., 10., 11., 16., 10.,
          9., 6., 10., 11., 14., 28., 6., 22., 7., 9., 8., 6., 16., 12.,
          5., 12., 13., 14., 10., 13., 12., 16., 4., 14., 11., 18., 9.,
          3., 11., 11., 5., 28., 7., 6., 5., 12., 13. ]
   decision_functions:
      -
         sv_count: 80
         rho: -8.7754762172698897e-02
         alpha: [ 1.0000000000000001e-01, 1.0000000000000001e-01,
             1.0000000000000001e-01, 1.0000000000000001e-01,
             1.0000000000000001e-01, 1.0000000000000001e-01,
             1.0000000000000001e-01, 1.0000000000000001e-01,
             1.0000000000000001e-01, 1.0000000000000001e-01,
             1.0000000000000001e-01, 1.0000000000000001e-01,
             1.0000000000000001e-01, 1.0000000000000001e-01,
             1.0000000000000001e-01, 1.0000000000000001e-01,
             1.0000000000000001e-01, 1.0000000000000001e-01,
             1.0000000000000001e-01, 1.0000000000000001e-01,
             1.0000000000000001e-01, 1.0000000000000001e-01,
             1.0000000000000001e-01, 1.0000000000000001e-01,
             1.0000000000000001e-01, 1.0000000000000001e-01,
             1.0000000000000001e-01, 1.0000000000000001e-01,
             1.0000000000000001e-01, 1.0000000000000001e-01,
             1.0000000000000001e-01, 1.0000000000000001e-01,
             1.0000000000000001e-01, 1.0000000000000001e-01,
             1.0000000000000001e-01, 1.0000000000000001e-01,
             1.0000000000000001e-01, 1.0000000000000001e-01,
             1.0000000000000001e-01, 1.0000000000000001e-01,
             -1.0000000000000001e-01, -1.0000000000000001e-01,
             -1.0000000000000001e-01, -1.0000000000000001e-01,
             -1.0000000000000001e-01, -1.0000000000000001e-01,
             -1.0000000000000001e-01, -1.0000000000000001e-01,
             -1.0000000000000001e-01, -1.0000000000000001e-01,
             -1.0000000000000001e-01, -1.0000000000000001e-01,
             -1.0000000000000001e-01, -1.0000000000000001e-01,
             -1.0000000000000001e-01, -1.0000000000000001e-01,
             -1.0000000000000001e-01, -1.0000000000000001e-01,
             -1.0000000000000001e-01, -1.0000000000000001e-01,
             -1.0000000000000001e-01, -1.0000000000000001e-01,
             -1.0000000000000001e-01, -1.0000000000000001e-01,
             -1.0000000000000001e-01, -1.0000000000000001e-01,
             -1.0000000000000001e-01, -1.0000000000000001e-01,
             -1.0000000000000001e-01, -1.0000000000000001e-01,
             -1.0000000000000001e-01, -1.0000000000000001e-01,
             -1.0000000000000001e-01, -1.0000000000000001e-01,
             -1.0000000000000001e-01, -1.0000000000000001e-01,
             -1.0000000000000001e-01, -1.0000000000000001e-01,
             -1.0000000000000001e-01, -1.0000000000000001e-01 ]
         index: [ 0, 1, 2, 3, 4, 5, 6, 7, 8, 9, 10, 11, 12, 13, 14, 15,
             16, 17, 18, 19, 20, 21, 22, 23, 24, 25, 26, 27, 28, 29, 30,
             31, 32, 33, 34, 35, 36, 37, 38, 39, 40, 41, 42, 43, 44, 45,
             46, 47, 48, 49, 50, 51, 52, 53, 54, 55, 56, 57, 58, 59, 60,
             61, 62, 63, 64, 65, 66, 67, 68, 69, 70, 71, 72, 73, 74, 75,
             76, 77, 78, 79 ]
